kühl -0.13101 0.083993 0.034069 0.255237 -0.11296 0.586269 -0.099438 -0.153041 -0.024471 0.156926 -0.180284 -0.360559 0.123599 0.347874 -0.140772 -0.052191 0.154763 0.262064 0.118284 0.010458 0.468217 -0.331877 -0.211442 0.217193 -0.180375 0.335002 0.373753 0.083407 -0.39842 -0.590297 0.514991 0.292679 0.06741 0.228113 -0.011397 -0.150893 -0.034969 0.09768 -0.001387 -0.196354 0.045733 -0.249458 0.245286 0.060803 0.112592 0.10378 0.398941 -0.046789 0.069822 -0.385662 0.076975 -0.243808 0.099422 0.113092 -0.266479 0.091618 0.325313 0.357306 -0.134968 -0.376573 -0.002753 -0.165609 0.095198 -0.36151 0.055585 -0.525022 -0.324269 0.305778 0.023652 -0.297428 -0.091476 -0.02206 -0.392005 -0.003312 0.208489 -0.014485 0.083465 0.438331 0.492986 0.434663 -0.111828 0.074779 -0.000591 -0.106743 -0.367723 0.441579 0.169351 0.552174 -0.606023 -0.228118 -0.162791 -0.186861 0.187665 -0.404066 0.183469 -0.374179 -0.154621 -0.255909 -0.083116 -0.152159 0.119294 0.085005 0.101967 0.034383 -0.097218 -0.27811 -0.025583 0.254498 0.028213 0.148368 -0.114764 0.357898 0.358188 0.286296 3.4e-05 -0.02093 -0.432773 0.215399 -0.418424 -0.35174 -0.03745 -0.225276 0.093548 -0.079821 -0.590577 0.295188 0.052878 -0.03604 -0.279886 0.291786 -0.067119 -0.163194 0.007701 0.219746 0.308379 0.451206 0.44452 0.004224 -0.060095 -0.076985 0.250392 -0.003966 -0.050543 0.170181 0.199254 -0.117968 0.194259 0.204279 -0.116056 0.203897 0.149518 0.330679 0.157767 0.063416 0.229436 -0.279011 0.083252 0.235617 -0.076255 -0.172825 -0.068913 -0.152284 0.011988 -0.149815 -0.242838 -0.137711 -0.120141 -0.106523 0.057124 0.376082 -0.078289 0.143185 -0.074835 -0.095978 -0.139883 -0.109259 0.372045 -0.034094 0.132726 -0.140611 0.06194 0.086575 0.208768 0.246217 0.152833 -0.305613 0.258419 0.173439 -0.188111 0.381301 -0.01383 -0.655241 -0.104052 0.087172 -0.184949 0.027334 -0.363791 -0.447239 -0.000262 -0.188162 -0.290586 0.111347 -0.201944 0.224911 0.084776 0.194178 0.34703 -0.138142 0.001607 0.169404 -0.200934 0.499901 0.04052 -0.084852 0.177124 -0.168778 -0.082037 0.264598 0.063358 -0.265436 0.002348 0.106087 -0.204724 -0.2348 0.174394 0.174229 -0.006091 -0.186578 -0.119675 0.143993 -0.079095 0.050024 -0.091788 0.13462 -0.091788 0.211312 -0.594648 -0.137848 0.088117 0.259275 -0.035483 -0.162666 -0.039884 0.12265 -0.252134 0.168723 -0.480045 -0.043014 -0.045928 -0.098714 0.220757 -0.002146 -0.22422 -0.212515 0.178332 -0.078489 -0.039877 0.34891 -0.116505 -0.322015 0.036094 -0.202275 0.128535 -0.40781 0.225485 0.268759 0.263198 -0.26596 -0.068674 0.134762 -0.028513 0.08062 -0.053692 0.155515 0.129882 -0.33225 0.130758 0.091553 -0.179408 0.175141 -0.085079 -0.217897 0.143235 -0.152282 -0.072086 0.029386 -0.290087 -0.490571 0.328817 -0.288458 0.057512 -0.025405 0.297576 -0.156564 0.293909 -0.30873 0.040564 -0.224234 0.101667 0.163865
angenehm -0.215265 0.07112 -0.099372 0.33996 -0.164207 0.337703 0.093956 -0.064453 0.039143 0.353993 -0.202024 -0.103565 0.130159 0.182086 0.023641 -0.103615 0.188968 0.362771 0.097949 -0.135872 0.277926 -0.367686 0.030196 -0.063437 -0.587159 0.243944 0.490448 0.018991 -0.277342 -0.694089 0.592666 0.249998 -0.121011 0.318901 0.01838 -0.047188 0.239129 0.06507 0.116003 -0.349137 0.255995 -0.303097 0.120118 0.035755 -0.024554 0.059177 0.365524 0.166469 -0.211981 -0.336239 0.068307 -0.339904 0.303942 -0.012008 -0.207786 0.237205 0.256373 0.242236 0.027718 -0.270926 -0.000908 -0.300671 0.035266 -0.349948 0.118652 -0.51967 -0.375777 0.284987 0.006241 -0.364663 -0.056097 -0.008007 -0.480562 -0.08596 0.418239 0.079518 0.457712 0.194504 0.384435 0.217929 -0.198347 0.035913 -0.003983 -0.117477 -0.402994 0.41127 0.05064 0.475353 -0.408537 -0.351723 -0.039881 -0.110529 0.189406 -0.427001 0.545339 -0.444039 -0.299054 -0.23153 0.028905 -0.066202 -0.253993 0.193072 0.174353 0.023682 -0.376886 -0.223451 -0.210556 0.291986 0.035918 0.067993 -0.173504 0.336491 0.477935 0.332502 0.059073 -0.054907 -0.265868 0.30927 -0.391854 -0.289623 -0.156243 -0.144223 -0.15054 -0.00493 -0.654428 0.287618 0.102233 0.066767 -0.27978 0.563159 -0.089913 -0.432849 0.127114 0.144644 0.160169 0.281356 0.381238 0.059538 -0.068809 -0.012357 0.255401 -0.373922 0.073074 0.013224 -0.064202 -0.082447 0.189223 0.113197 -0.352668 0.326125 0.090575 -0.003882 -0.037691 0.067598 0.064462 -0.469052 -0.062516 0.244968 -0.177953 0.071705 0.039449 0.011071 -0.241425 -0.176394 -0.383725 -0.201885 -0.27047 -0.034679 0.023406 0.185108 0.197972 0.162414 -0.025571 -0.023343 -0.219961 -0.208762 0.313994 -0.013112 0.040675 -0.033223 -0.087984 -0.217993 0.289767 0.210283 0.174328 -0.115457 0.497791 0.217996 -0.277139 0.509955 0.167184 -0.516561 0.168101 0.015311 -0.004193 -0.044743 -0.340365 -0.437423 -0.092949 -0.307014 -0.245909 -0.084502 -0.256773 0.138287 0.112376 0.17763 0.20185 -0.003561 0.070225 0.242268 -0.335753 0.050067 0.078565 0.165118 0.187339 0.016979 -0.296905 0.102545 -0.028289 -0.19256 -0.075691 0.199887 -0.310753 -0.223751 0.26269 0.301614 -0.137473 -0.297597 -0.088191 0.074486 -0.194657 -0.036134 -0.223313 0.186421 -0.258437 0.13702 -0.593303 -0.310282 0.125774 0.01306 -0.245386 -0.042049 0.249872 0.10793 -0.189833 0.093752 -0.472186 -0.149002 0.035957 -0.01063 0.203606 -0.254695 -0.111623 -0.194559 0.16601 -0.190007 -0.102483 0.59391 0.006415 -0.128962 0.125156 -0.201196 0.124287 -0.269927 0.183682 0.229217 0.395383 -0.290318 -0.20868 -0.028595 -0.001186 0.159219 0.081226 0.015539 0.215433 -0.372845 0.269411 -0.094808 -0.173252 0.178094 0.224958 0.163836 0.059991 -0.141654 0.132577 -0.019748 -0.155264 -0.572335 0.303989 -0.542331 0.075077 -0.071984 0.18228 -0.174888 0.272932 -0.249646 -0.013383 -0.148048 0.051104 -0.071998
warm -0.313347 0.024254 -0.015752 0.397581 -0.171099 0.148221 0.210706 -0.179991 -0.345711 0.675151 -0.056416 0.06758 -0.152166 0.237837 -0.024738 0.10916 0.373291 0.52657 0.017139 -0.042886 0.187828 -0.337493 0.288951 -0.126377 -0.481489 0.254936 0.586162 0.208807 -0.527836 -0.580951 0.33947 0.082481 0.124537 0.262806 -0.2888 0.05794 0.113995 -0.03442 0.114106 -0.014081 0.340885 -0.195957 0.006477 -0.462688 0.068479 -0.069474 0.29134 0.488959 -0.170289 -0.274464 0.048531 -0.164544 0.151651 0.175674 -0.163302 -0.057841 0.245436 0.352466 -0.102699 -0.212996 -0.231152 -0.652979 0.005948 -0.440904 0.010311 -0.667019 -0.205244 0.242899 -0.10513 -0.521696 0.1288 -0.117302 -0.331908 0.037111 -0.094329 0.268506 0.282346 0.36192 0.339672 0.262831 -0.223921 0.011776 0.18257 -0.393186 -0.256765 0.421899 0.059228 0.194275 -0.653047 -0.188888 -0.042454 -0.036792 0.160342 -0.420311 0.686879 -0.332439 -0.263333 -0.042491 0.053369 0.50515 -0.461052 0.276685 0.26178 0.078586 -0.158394 -0.426087 -0.302922 0.387661 -0.022258 -0.101003 -0.202988 0.021143 0.484022 0.84402 -0.269828 -0.387174 -0.277974 0.117153 -0.574424 -0.064885 -0.002406 -0.151632 -0.299912 -0.278048 -0.586091 0.27265 -0.316411 0.020161 -0.278277 0.521516 -0.43076 -0.557496 -0.229806 0.047097 -0.200013 0.284757 0.249952 -0.020555 0.006979 0.217964 0.236859 -0.44564 0.172231 -0.142375 -0.309093 -0.112818 0.062602 0.013836 -0.233132 0.778967 -0.207025 -0.20564 -0.207311 0.079617 -0.00608 -0.352378 -0.130258 0.11382 0.000304 0.019757 0.241082 -0.056737 -0.075191 0.148352 -0.30858 0.085692 -0.38525 0.078366 -0.026755 0.191248 0.231811 0.094968 -0.158068 0.080735 -0.130219 0.0496 0.006131 0.098422 -0.122365 -0.153329 -0.002452 -0.092186 0.329587 0.214149 0.591609 -0.019664 0.390116 0.245162 -0.251916 0.22823 0.21945 -0.35081 0.185291 -0.121484 -0.165834 0.472377 -0.638073 -0.286033 -0.169649 0.160762 -0.241 -0.249106 -0.481583 0.075417 0.141355 -0.001134 0.217959 -0.023522 -0.043258 0.156 0.115577 0.44462 0.390728 0.34665 -0.068014 -0.197773 0.059014 0.180809 -0.169371 0.026154 -0.02761 -0.191848 -0.422735 -0.278577 0.376096 0.208094 -0.128317 -0.302834 -0.16456 0.150409 -0.096433 0.091074 -0.117031 0.315635 -0.436204 0.123084 -0.627606 -0.327738 0.00651 0.113087 -0.179143 0.162045 0.105734 -0.03231 -0.060963 0.470612 -0.173444 -0.37992 0.322348 0.249834 0.217823 -0.540405 0.102052 -0.347926 0.273108 0.074763 -0.243087 0.595165 0.066958 -0.141576 0.091497 -0.154496 0.08823 -0.238672 0.154061 0.108077 0.276112 -0.210026 -0.14738 -0.209973 0.01195 0.162536 0.217814 -0.066979 0.138974 0.07265 0.141079 -0.306189 -0.305405 0.335691 0.172487 0.220732 -0.018871 0.26622 0.128206 0.02645 0.083615 -0.181785 0.361186 -0.157059 -0.061525 -0.133047 -0.255865 -0.454259 0.352968 -0.176557 0.247487 -0.37572 -0.03358 0.23488
Frau -1.00057 -0.392446 -0.597433 -0.173244 0.094912 1.19397 0.154023 0.408368 -0.030527 0.734865 0.14853 -0.312735 0.196319 -0.225053 -0.424653 0.034802 -0.207141 0.467872 0.466493 0.034945 0.125703 -0.220189 -0.454279 -0.519099 0.073891 -0.359667 -0.098203 0.833507 0.497543 0.370527 0.806835 -0.625654 -0.5144 0.180373 -0.514085 0.704004 0.55432 -0.219525 -0.230544 0.382128 -0.097915 -0.015489 -0.282525 -0.16242 0.603319 -0.744956 0.064719 0.472205 0.351154 0.526338 -0.213929 0.226351 -0.903171 0.842322 0.217068 -0.071927 -0.644725 0.221938 0.1153 0.163886 -0.218923 -0.715479 1.00161 -0.083488 0.259811 -0.060309 -0.037918 -0.167827 -0.848145 -1.06813 0.008875 -0.17261 0.791742 -0.237427 -0.365885 1.26748 0.59757 0.337691 0.42206 0.032565 -0.550727 0.745867 -0.350205 -0.391877 0.070856 0.08307 0.083831 -0.108554 -0.283252 0.559898 -0.469138 0.067135 0.639186 -0.486931 0.376973 0.643006 -0.083693 -0.079859 0.359983 -0.128814 -0.200715 0.272902 0.182677 0.593856 0.234638 -0.041219 0.530116 0.062785 -0.18529 -0.6236 0.053984 -0.115287 1.25435 0.332212 -0.296146 0.44255 -0.654547 0.125036 -0.601631 -0.161605 -0.297219 0.209692 -0.616729 -0.242481 -0.786847 0.346642 0.672513 -0.540906 -0.162214 0.18749 0.421395 0.579667 -0.279801 -0.301759 -0.017755 -0.05739 0.264492 -0.077823 -0.465322 -0.175225 -0.17806 0.751445 0.416858 0.08162 0.431376 0.284059 -0.839088 0.003127 -1.17569 0.55199 0.298036 0.477035 0.676698 0.061804 -0.49798 0.118035 0.669384 -0.347735 -0.164314 0.710377 0.26249 -0.124314 0.495256 -0.297855 -0.430085 -0.335844 0.386763 0.077857 -0.224043 0.226835 -0.163644 -0.207285 0.487657 -0.562996 -0.957903 0.143005 0.364447 -0.563835 -0.403411 0.131464 1.09553 0.537903 -0.12299 0.392434 0.770992 0.044003 0.088644 -0.401403 0.33767 0.469507 -0.112402 -0.062526 0.918945 -0.449775 0.574591 0.129781 -0.315971 -0.578679 0.207066 0.185556 -0.298057 -0.232428 -0.084822 -0.582086 -0.148365 -0.18773 0.360232 -0.486072 0.897489 0.170244 0.63098 -0.565354 0.475721 -0.006695 -0.07235 -0.886378 0.800988 0.749733 1.0922 -0.134038 0.108005 0.19106 -0.590713 0.207664 0.952601 0.285935 -0.644818 0.762575 -0.264891 0.206065 -0.137504 0.62443 -0.274183 0.964197 0.063039 0.694228 -0.524073 0.942631 0.424963 -0.205077 0.580783 -0.295897 0.133468 0.527654 0.063533 -0.283355 -0.076084 0.352442 -0.344159 -0.086278 0.470408 -0.803259 0.148446 -0.655292 0.348168 -0.961199 -0.962313 -0.086626 -0.048243 -0.088075 -0.271641 -0.577281 1.30777 0.302935 0.649158 -0.31056 0.465275 0.259792 -0.64033 0.416286 0.532336 -0.015649 0.201464 0.677915 -0.517273 -0.159574 -1.0907 -0.495572 0.025679 0.205964 0.187027 0.159815 0.193502 0.435746 -0.280273 0.546862 0.110159 -1.01319 0.39944 -0.224341 -0.47111 0.179604 0.8665 -0.282144 0.539634 -0.628631 0.098303 -0.063938 -0.727423 0.957116
heiß -0.103897 -0.046341 -0.015025 0.227481 -0.162541 0.178214 0.011707 -0.093332 -0.037773 0.284841 -0.244696 0.266183 0.119971 0.084066 -0.085263 0.317799 0.318224 0.54871 0.185203 -0.016378 0.232784 -0.338837 0.034109 0.066767 -0.407969 0.030762 0.126839 0.265655 -0.020441 -0.349096 0.356695 0.157131 -0.015149 0.202196 -0.043791 -0.044397 0.003592 0.071294 -0.065206 -0.014873 0.368321 -0.143008 0.235189 -0.032765 0.19922 -0.226667 0.386247 0.209393 -0.199941 -0.214535 -0.078824 -0.379679 0.042428 -0.08764 -0.015913 -0.002783 0.466475 0.177532 -0.002967 0.207665 -0.026476 -0.563702 -0.10173 -0.247978 0.129163 -0.834173 0.12294 0.117447 -0.203998 -0.258164 0.049417 -0.246278 0.122337 0.324865 0.031573 0.110831 0.262199 -0.01377 0.282179 0.239337 0.104227 -0.041932 0.129718 -0.253145 -0.220636 -0.051972 0.015055 0.223278 -0.762758 -0.480314 -0.019086 -0.219376 0.16452 -0.018534 0.470572 -0.343373 -0.179342 0.068541 -0.248018 0.466712 -0.274239 0.071259 0.210993 -0.10476 -0.120916 -0.659505 -0.373315 0.312963 -0.280675 0.117288 0.273351 0.061994 0.214297 0.443125 -0.046346 -0.385384 0.021821 0.379405 -0.567018 -0.293584 -0.281903 -0.49369 -0.727927 -0.314671 -0.244051 -0.187241 -0.137333 0.158859 -0.380262 0.295783 -0.059887 -0.371192 -0.080273 0.264471 -0.139585 -0.103608 0.429967 0.032926 0.041937 -0.16095 0.263806 -0.057104 0.378386 0.125658 -0.173501 0.129094 0.280761 0.196887 -0.115352 0.544055 0.225304 -0.193019 -0.294004 0.046359 0.100673 -0.23704 0.058494 0.294701 0.081385 0.030599 0.317581 -0.165173 -0.207213 0.423796 -0.230706 -0.020895 -0.181425 -0.128503 0.188116 0.202255 0.161177 0.059041 0.129874 0.099573 0.008044 -0.114945 -0.06461 0.15937 -0.190985 -0.108355 0.15801 0.001185 0.319114 0.069721 0.50972 -0.029314 -0.215128 0.312848 0.043366 0.363193 0.219006 -0.307772 0.046957 -0.086979 -0.221916 -0.008926 -0.048759 -0.443576 0.20488 0.299831 0.014781 -0.161547 -0.479831 -0.003604 0.07692 -0.055201 0.133417 0.182 0.096896 0.445121 0.208678 0.26175 0.466034 0.159287 0.176995 -0.078808 -0.023879 0.146888 0.052737 0.073228 -0.209488 -0.381989 -0.493259 -0.24312 0.444924 0.06416 0.180967 -0.233057 0.0848 0.339144 -0.103237 0.300571 -0.453766 0.213839 -0.297417 0.212308 -0.570406 -0.150683 -0.06375 0.060106 -0.392381 0.126971 0.149508 -0.011111 -0.302978 0.013319 -0.056659 -0.114261 0.339041 -0.004535 0.015095 -0.366908 -0.222564 -0.519365 0.459589 0.350911 -0.468783 0.330861 -0.374269 -0.130168 0.131136 0.042632 0.10783 -0.032788 -0.072554 0.159949 0.212483 -0.184982 0.023501 0.110091 0.009467 -0.081682 0.23922 -0.049792 0.27551 0.215716 0.234384 -0.162488 -0.317382 0.437612 0.561499 -0.150934 -0.297888 0.297121 -0.136332 0.054819 0.039315 -0.495373 0.375952 -0.420531 -0.184269 0.369116 -0.35685 -0.355845 0.406986 0.000602 0.057363 -0.306498 0.22966 -0.078337
eisig 0.050015 -0.095238 -0.029342 0.265013 0.056499 0.17216 -0.119341 -0.118801 -0.127969 0.030754 -0.012767 0.046443 -0.149657 0.115808 0.113161 -0.055597 0.172607 0.15246 -0.016825 0.095176 0.07656 -0.096564 0.101106 0.064327 -0.140712 -0.099237 0.117799 -0.030326 -0.202359 -0.172866 0.368629 0.01985 0.010686 0.010785 -0.159915 0.186809 0.115194 0.139636 0.103315 -0.023645 0.082967 0.043052 0.226925 0.233814 0.029175 0.039707 0.419517 -0.036393 -0.039619 -0.151441 -0.050707 -0.059956 0.001807 -0.012969 -0.100811 -0.131053 0.12388 0.029966 -0.059596 0.185078 0.1244 -0.019078 -0.08681 -0.103576 -0.017514 -0.307255 -0.066876 0.16645 0.005003 -0.084796 -0.040436 -0.080359 -0.205332 0.142796 0.285624 -0.091938 0.132661 0.130625 0.180786 0.072011 0.124564 -0.026038 0.191904 -0.012704 -0.118313 0.004305 -0.016447 0.206909 -0.484904 -0.156605 0.035944 -0.160464 0.085444 0.024617 0.320051 -0.264177 -0.014607 0.010966 -0.155588 0.135804 -0.095939 0.008613 0.172715 -0.002422 -0.01849 -0.073306 -0.228805 0.121838 0.168287 0.176808 -0.037957 0.051124 0.164641 0.123876 0.03201 0.052981 -0.215787 0.070152 -0.084088 -0.21477 0.040793 -0.273408 -0.27469 -0.093977 -0.223525 0.160584 -0.131428 0.179521 -0.114248 0.075121 -0.122257 -0.334526 0.010674 0.104236 0.000643 -0.116325 0.156462 -0.191145 -0.028822 -0.010246 0.177628 0.127736 0.087363 0.105475 -0.08004 0.071807 -0.025352 0.100745 0.164824 0.323029 0.150557 -0.099034 0.067852 0.048596 0.140336 -0.08138 0.031484 0.131694 0.00516 -0.029557 0.245821 0.083866 -0.210021 0.173766 -0.183086 -0.003124 -0.01183 -0.182626 0.190598 0.002912 0.115493 0.022808 0.151807 0.067737 -0.011229 -0.082724 -0.105226 -0.016119 0.0452 -0.109696 0.127344 -0.099664 0.054943 0.04272 0.024612 -0.160653 0.005627 0.147142 -0.261267 0.07893 0.058842 -0.365475 -0.156926 -0.026398 0.00179 0.054873 -0.046408 -0.302902 0.103251 0.162823 0.020013 0.049869 -0.354869 -0.089384 0.083565 0.111771 -0.047739 -0.095679 -0.104216 0.096754 -0.146885 0.112345 0.225846 0.04163 0.09727 0.043895 -0.079449 0.205619 -0.077565 -0.107104 -0.076673 -0.081502 -0.09841 0.01939 0.003405 0.002371 0.034061 -0.226407 -0.05692 0.209362 -0.049733 -0.12981 -0.090262 0.30374 -0.149274 0.03677 -0.575128 -0.083517 -0.171289 -0.02934 -0.154784 -0.040238 0.02694 -0.333755 -0.235667 0.014125 -0.216594 0.042919 0.223791 0.04732 0.035836 0.005753 -0.249409 -0.057775 0.28352 -0.082746 -0.058042 0.109 -0.066188 -0.033015 0.136244 0.022084 0.056589 -0.094273 -0.048067 0.088828 0.10036 -0.068801 0.006351 0.320108 -0.056237 -0.081394 0.08742 -0.086706 0.090213 0.070418 0.013982 -0.189114 -0.308471 0.152265 0.216403 -0.05479 -0.034252 -0.101429 0.110252 -0.179631 0.111651 -0.305073 0.071849 -0.153496 -0.080214 0.097807 -0.006952 -0.126882 0.257547 -0.086525 0.072601 -0.098729 0.078894 -0.08541
Haus -0.038847 0.261063 -0.039872 0.193788 -0.461803 1.06126 0.493364 -0.418471 0.367745 0.052154 -0.07639 0.236568 0.491894 0.127818 -0.414386 -0.109257 -0.140876 0.466366 0.444072 -0.047319 0.499881 -0.007433 -0.235157 0.109734 0.256269 -0.809582 -0.080648 0.675437 0.291298 -0.068857 0.0408 0.429277 -0.428607 0.52768 0.400693 -0.069411 0.033778 -0.573512 0.110461 0.002299 -0.336379 -0.013275 0.272034 -0.164932 0.371854 -0.442724 0.14767 0.630913 -0.008572 0.033063 -0.348664 -0.248346 -0.284087 0.548998 -0.283143 -0.026579 -0.24224 1.00684 -0.946035 -0.095961 0.095085 -0.486827 0.027338 -0.01171 -0.109611 -0.116178 -0.033638 -0.159735 -0.639432 -0.69842 -0.36354 0.222715 0.097491 -0.171014 -0.737509 0.45677 -0.101732 -0.068756 0.114035 0.119819 -0.003927 -0.102763 0.546255 -0.650195 -0.444313 0.498231 0.03703 0.472906 -0.529475 -0.400341 -0.45063 -0.392605 0.167661 0.041755 -0.328873 0.019804 0.115021 -0.107233 -0.217175 0.468634 0.156874 0.192136 0.018704 -0.061619 -0.041352 0.130252 0.334993 0.037218 -0.420009 -0.76076 -0.049118 -0.148384 0.346312 0.389471 -0.889521 0.047269 0.497264 -0.083339 -0.566552 0.109428 0.059124 0.384472 -0.003219 0.171899 -0.56794 0.065263 0.237098 0.153221 -0.214051 0.383796 0.233541 -0.180475 -0.014248 -0.426601 -0.046845 0.126139 0.321106 1.27153 -0.101204 0.160198 -0.341369 -0.055365 0.207005 0.222873 0.302331 0.121463 0.007183 0.169057 -0.662005 -0.124003 0.36852 0.13616 -0.020413 -0.0498 -0.500391 -0.553053 0.022244 0.229102 0.648605 0.157752 -0.547016 0.114662 0.882917 -0.605954 -0.343874 0.095229 0.22953 0.7661 -0.524094 0.300765 -0.141703 0.247451 0.272373 0.004922 -0.451765 -0.179278 -0.425144 0.137313 0.427723 0.416994 -0.179642 -0.214815 -0.034918 0.434406 0.412906 0.514043 0.512361 -0.267605 -0.157719 0.082293 0.440698 0.040346 0.229732 -0.411341 -0.095377 -0.124426 0.190061 0.710009 -0.003687 0.147941 -0.044826 -0.185857 -0.181931 -0.121365 -0.283183 0.368795 0.198329 -0.806554 0.01464 0.221179 0.323939 0.152803 -0.184938 -0.064617 -0.295195 0.188941 0.611338 0.227319 0.980486 0.477851 -0.209297 -0.023021 -0.015324 0.158924 1.01188 -0.521639 -0.25561 -0.224976 -0.640487 0.021631 -0.766842 0.032037 -0.40297 0.417552 -0.529021 0.464612 0.361059 0.299796 -0.146405 0.287654 -0.2767 -0.233839 -0.440288 -0.118563 -0.458878 0.240313 -0.116406 0.116068 -0.015942 0.400706 -0.264887 -0.615287 0.233516 -0.247578 -0.182274 -0.418916 -0.778997 0.686224 0.268789 -0.499764 0.151539 0.065327 -0.438101 0.012369 0.24336 -0.428092 0.026207 -0.438098 -0.127396 -0.250687 0.20663 -0.448829 0.661063 0.79413 -0.394367 0.206988 -0.183221 0.200808 0.44565 -0.03898 0.128656 -0.085505 0.233753 0.769689 -0.295115 0.384009 -0.158315 0.320025 0.411037 0.60174 -0.326834 0.707807 -0.424456 -0.447013 -0.319022 -0.291348 -0.304337 -0.296589 -0.376565 0.891515
Hof 0.439058 0.082295 0.093659 0.152738 -0.262129 0.433034 -0.150827 0.143574 0.373512 0.217347 0.058315 0.217075 -0.046026 0.15158 0.146688 0.324646 -0.077598 0.295144 0.370753 -0.186033 0.44657 0.336309 -0.256215 -0.028494 0.427755 -0.327749 0.246439 0.58562 0.164369 0.037962 0.339837 0.213026 -0.395755 0.671909 0.227294 -0.047383 0.160323 -0.282114 -0.308966 0.354913 -0.186743 0.02626 0.111953 -0.094361 0.442757 -0.413769 -0.131491 0.073002 0.384751 -0.113278 -0.351185 -0.324913 -0.137564 -0.115344 -0.082637 0.190394 -0.168988 0.570323 -0.567063 0.067918 0.018841 -0.667086 -0.029306 -0.266978 0.309909 -0.176502 -0.010624 0.163234 -0.322693 -0.259124 0.291287 -0.345168 0.193134 0.153998 -0.38151 0.419183 -0.177486 0.15615 0.313432 -0.13912 -0.054485 -0.401586 -0.219603 -0.533683 -0.152979 0.208535 0.023297 0.170144 -0.223646 -0.057556 -0.276012 -0.288239 0.165414 0.309217 -0.732021 0.067089 0.008753 -0.267947 -0.076686 -0.130156 -0.163757 -0.002582 0.26613 0.217404 0.159427 0.273868 0.057358 -0.248097 -0.155374 0.023645 -0.22099 0.116694 0.017011 -0.053618 -0.265928 -0.326172 0.424398 -0.230601 -0.212726 0.153296 0.063369 -0.060147 -0.152619 0.153632 -0.276826 -0.087548 0.181113 0.484051 -0.439909 0.51883 0.153943 -0.4611 -0.183064 -0.134142 0.063324 0.007028 0.136999 1.01875 -0.091743 0.336538 -0.060105 -0.335945 0.094987 -0.531978 0.251786 -0.367595 -0.064993 -0.073797 -0.338938 0.014822 0.275858 0.254561 6e-06 -0.055817 -0.322616 -0.12439 0.06722 0.311866 0.400992 -0.083144 -0.673738 -0.011109 0.410416 -0.431645 -0.194901 0.382539 -0.16793 0.366961 -0.274153 -0.064926 -0.040258 -0.2216 -0.117744 0.144023 -0.676737 -0.310228 -0.241951 -0.022504 0.265121 -0.103309 0.121476 0.207282 0.114887 0.387804 0.435524 0.415001 0.171199 0.147475 -0.124856 -0.108571 0.432711 -0.022038 0.311087 -0.137801 -0.174397 0.268739 -0.152146 0.571975 -0.590742 -0.011478 0.034397 0.116479 -0.0689 -0.140697 -0.093011 -0.401214 0.056162 -0.586384 -0.010912 0.194313 0.346097 0.207356 -0.497526 -0.483121 0.008735 0.041342 0.403763 0.121716 0.357016 0.35905 0.062034 0.428468 -0.118545 0.010393 0.925746 -0.249375 -0.391706 -0.100168 -0.517355 0.131907 -0.604758 0.066247 -0.446895 0.376301 -0.552836 0.269017 0.270669 0.071618 -0.215073 0.381138 -0.315121 -0.12071 -0.438393 0.027662 -0.448408 -0.264909 -0.256241 -0.182943 0.456183 0.524424 0.197256 -0.231866 -0.087337 -0.447524 -0.082068 -0.184219 -0.440046 0.409972 0.321625 -0.284471 -0.26834 -0.179511 -0.152011 -0.010105 0.221834 -0.526908 -0.14381 -0.201005 -0.224432 0.105491 0.323133 -0.401609 0.25032 0.404769 -0.174742 0.371473 -0.458115 0.352088 0.442932 0.19572 -0.197486 0.258837 0.489123 0.409267 -0.115119 0.172715 -0.27079 0.164467 0.303207 0.377408 -0.763836 0.111329 -0.273104 -0.047648 -0.039819 0.141544 -0.39374 0.137715 -0.21315 0.83475
Wohnung -0.211693 0.05977 0.048093 -0.213072 -0.181547 0.559009 0.334768 0.154741 0.226051 0.222397 -0.058146 0.295764 0.121154 -0.11948 -0.550554 0.542501 -0.03711 0.733801 0.005113 -0.048073 -0.418964 -0.324953 -0.028013 -0.304475 0.189191 -0.595557 -0.399687 0.702129 0.152784 0.010498 -0.059293 -0.028526 -0.307037 0.648374 0.172266 0.28604 0.042335 -0.657747 0.172283 0.23407 -0.60932 0.223673 0.146353 -0.136507 0.207816 -0.148794 0.194651 0.043489 0.265033 -0.404691 -0.296313 -0.336574 -0.407859 0.320795 0.011474 -0.359804 0.151507 0.911985 -0.911913 -0.232833 -0.20911 -0.571423 0.194072 0.241389 -0.084549 0.136778 -0.282258 -0.145303 -0.610618 -0.512184 0.029757 -0.020521 -0.496299 -0.117872 -0.330191 0.405151 0.01429 0.106449 0.437958 0.198674 0.090285 -0.223888 0.699072 -0.44438 -0.322119 -0.017059 0.385867 0.373307 -0.284515 0.08415 -0.31985 -0.230854 0.611045 0.205003 0.114345 -0.292703 -0.204906 0.065593 -0.06303 0.174905 -0.122919 0.025166 -0.320725 -0.294542 -0.265631 0.36365 0.083794 -0.052683 -0.138217 -0.454045 0.30528 -0.429979 0.163674 -0.085196 -0.54714 0.397185 0.535971 -0.025618 -0.687868 0.018023 -0.325908 0.184155 0.126533 0.08502 -0.258457 -0.214957 0.284348 0.125368 -0.317164 0.111675 0.053756 -0.315972 0.025512 -0.311215 0.288779 0.015568 0.211238 0.75392 -0.036762 -0.420639 -0.319463 0.222782 -0.140481 0.386516 -0.106494 0.148301 0.056455 0.179312 -0.602279 -0.148596 0.527909 0.416389 -0.163492 0.118559 -0.308764 -0.559345 0.086348 0.068045 0.406669 0.295137 -0.001446 0.214685 0.290301 -0.389797 -0.002891 0.153075 -0.181154 0.351457 -0.46095 0.053923 0.153471 0.329212 0.49572 0.064776 -0.461306 -0.120769 -0.028324 -0.118754 0.172958 0.285198 0.712253 -0.291276 0.04616 0.264028 0.351947 0.387417 0.069509 -0.31475 -0.49543 -0.131788 -0.143262 0.297569 -0.153935 -0.248839 -0.10421 -0.202053 -0.10334 0.090176 -0.221109 0.041556 0.017945 0.075256 0.095621 -0.36 0.212222 0.391566 0.025669 -0.106441 0.278535 -0.13231 0.187601 -0.186228 -0.133987 -0.054003 -0.202329 -0.106244 0.547168 -0.171985 0.75248 0.866578 0.179375 -0.43196 0.350872 0.026153 0.53465 -0.214659 0.207086 -0.395569 -0.557286 -0.104649 -0.311638 -0.357327 -0.401232 0.31726 0.020894 0.306094 0.009171 0.108031 -0.043466 0.503559 0.177288 -0.382307 -0.503993 0.159091 -0.079033 -0.110411 -0.101144 0.035425 -0.087898 -0.156771 0.015394 -0.62696 0.312391 -0.672172 -0.084413 -0.246022 -0.229788 0.3013 0.057983 -0.516023 -0.043646 -0.083427 -0.308853 -0.15946 0.071943 -0.119514 -0.037034 0.123933 -0.064079 -0.156054 0.13612 -0.165307 0.393857 0.185021 0.000265 0.051489 -0.072051 -0.036571 0.560759 0.305763 0.331408 0.090909 0.536632 0.311866 -0.619537 0.315404 -0.585898 0.35675 0.197217 0.291092 -0.378698 0.739778 0.067875 -0.196233 -0.155502 -0.201569 -0.248147 0.004 -0.413781 0.297281
Mann -0.114098 -0.230843 -0.640911 -0.354235 0.201528 0.58231 -0.060638 -0.035265 0.18188 -0.122956 0.142207 0.060144 0.554416 0.675014 0.050001 0.042164 0.123777 -0.093124 0.585235 -0.258694 0.141865 0.556581 -0.198292 0.628413 0.301431 0.221033 -0.033357 0.076379 0.294316 0.185656 0.567672 -0.042076 -0.366604 -0.068742 -0.530883 0.225358 0.036872 0.278191 -0.339714 0.601758 -0.034995 -0.455026 0.141216 0.23905 0.572544 -0.388748 0.41554 -0.26747 0.26974 0.657817 -0.043757 -0.273964 0.133008 0.673183 -0.076127 -0.63784 -0.43849 0.013046 -0.181378 -0.319239 0.109003 -0.466912 0.17339 -0.307765 0.497415 -0.714915 0.349437 -0.278343 -0.275982 -0.501909 -0.290429 -0.558279 0.352322 0.511172 -0.913114 1.05133 0.26933 -0.01808 0.051135 0.271264 0.114209 0.167053 0.193633 -0.546293 0.250148 0.724601 0.589635 0.380274 0.370611 0.507022 -0.028523 -0.255376 0.630646 -0.622941 -0.032525 0.572603 -0.093711 0.086632 -0.232011 0.143705 0.208167 0.277332 0.44358 0.383455 0.480375 -0.489783 0.347227 0.101894 0.448117 -0.070475 -0.547849 -0.723877 1.36694 0.014241 -0.750654 -0.135691 -0.196055 -0.433657 -0.251231 0.302087 0.20506 0.475716 -0.043263 0.04839 -0.618593 0.599918 -0.179742 -0.348379 -0.160527 0.183775 0.003096 0.13574 -0.032772 -0.110968 0.104694 -0.102416 0.138817 0.15532 -0.528742 -0.175694 -0.162927 0.183436 0.150625 -0.091713 0.065999 -0.334659 -0.668733 0.122737 -0.14685 0.229017 -0.088369 0.380998 0.496684 -0.060187 -0.102502 -0.263252 0.090319 0.24949 -0.120985 -0.164857 -0.266594 0.050815 0.515908 0.281741 -0.697681 -0.234968 -0.117423 1.02546 -0.489397 0.424746 0.164385 -0.251414 -0.071166 -0.460353 -0.280467 0.348797 0.246951 -0.242972 -0.043797 0.251779 0.425076 0.245705 -0.262013 0.483412 0.655819 0.155152 -0.352883 -0.644376 -0.156147 0.340036 -0.082695 -0.00227 0.918783 -0.216089 -0.291718 0.159515 0.331527 0.114339 0.299461 0.464355 -0.402883 0.611147 0.296366 -0.089006 0.043811 0.251867 0.163581 -0.556942 0.446093 0.405362 0.10258 0.11352 -0.233968 0.018313 0.306533 -0.865399 0.227549 0.089729 0.626413 -0.477135 0.104162 0.341492 -0.60746 0.657485 0.531184 -0.472353 -0.862204 0.16256 -0.179129 0.499016 -0.66805 0.402243 -0.110092 0.255774 -0.519331 0.399536 0.144895 0.514914 0.645388 -0.155819 -0.261708 -0.293473 0.008354 0.779253 0.121356 -0.716116 0.129711 0.221528 -0.246351 -0.201826 0.709595 0.078687 0.032222 -0.815273 -0.205056 -0.206193 -0.592587 0.353075 -0.747848 -0.0959 -0.565305 -0.586139 0.600044 0.431439 0.806399 -0.466686 0.37479 0.560291 -0.360209 0.480913 0.081902 0.08624 0.708054 0.946288 -0.762857 -0.211018 -0.765796 -0.186322 -0.801418 -0.403732 -0.45905 0.198798 0.335562 -0.307937 -0.44266 0.57019 -0.458341 -0.424 0.003313 -0.251475 -0.436111 0.215997 0.031363 0.045646 -0.104208 0.031164 0.585568 -0.195112 0.052346 0.940466
Garten 0.108444 -0.12852 0.238964 0.2731 -0.255505 0.272951 0.014079 0.008457 0.053148 0.266665 0.147356 0.095444 -0.000474 0.234925 0.186629 -0.219369 -0.152162 0.804395 0.165678 -0.098919 -0.152224 -0.059043 -0.08307 0.147356 0.044921 -0.32517 -0.100248 0.43626 0.414683 -0.078287 0.426588 -0.130008 -0.081383 0.784079 0.184063 0.261052 0.178751 -0.093985 -0.103334 0.037916 -0.265481 0.187209 0.48859 -0.127324 0.729414 -0.26943 -0.076923 0.16024 -0.122694 0.018949 -0.218413 -0.525892 -0.390881 0.082003 -0.029295 0.024988 0.062717 0.814562 -0.554739 -0.110549 0.199375 -0.588665 -0.231311 0.171172 0.013892 0.228754 -0.085012 -0.304564 -0.458137 -0.105866 0.151092 -0.377628 0.249969 -0.022274 -0.239927 0.280178 0.314311 -0.04181 -0.226371 -0.057811 -0.017089 -0.045779 0.132817 -0.129896 -0.100584 0.244852 0.098625 0.190943 -0.309679 0.106185 -0.320123 0.111247 0.385951 0.07006 -0.259558 -0.08042 -0.009846 -0.178578 0.075997 -0.154866 -0.224161 -0.036916 0.028756 0.26831 -0.121783 0.276111 -0.02935 0.043492 -0.192119 -0.297489 -0.025732 -0.279844 0.227861 0.297321 -0.346682 -0.272411 0.61995 0.047926 -0.254294 -0.128741 -0.08727 -0.051709 -0.026072 0.190714 -0.570405 -0.226571 0.180007 0.28369 -0.349088 -0.022237 0.054131 -0.30203 -0.450487 -0.302386 0.220617 0.191059 0.268925 0.758311 0.246448 0.182493 -0.163787 -0.106649 -0.303527 -0.026334 -0.065772 -0.200624 0.157612 0.429559 -0.230926 0.027309 0.059405 -0.106429 0.165644 -0.354778 -0.147035 -0.035828 -0.237464 0.143852 0.271946 -0.22544 -0.334324 0.103907 0.119024 -0.119866 -0.032219 0.288318 -0.084965 0.501039 -0.179482 -0.117399 -0.335188 0.183506 0.337178 0.468518 0.165514 -0.123962 -0.261529 -0.03552 0.268783 -0.04362 0.375335 -0.400309 0.268661 0.486027 0.176736 0.163731 0.138156 -0.195739 -0.084861 -0.280652 0.492956 0.07631 0.211656 -0.182632 0.200352 0.180433 -0.124073 0.154399 -0.185126 0.06746 0.270549 0.235419 -0.007366 0.056305 -0.11284 -0.133266 0.129567 -0.295101 0.09632 0.24164 0.078349 -0.125764 -0.26448 -0.317895 -0.056374 -0.088299 0.509447 0.125862 0.51577 0.438951 0.075824 -0.146264 0.27379 -0.052192 0.645551 -0.275092 -0.175729 -0.158002 -0.724315 -0.305748 -0.599116 -0.089409 -0.233592 0.225334 -0.18284 0.345042 0.082274 0.128755 -0.099935 -0.037083 0.058314 -0.249294 -0.264021 -0.383484 -0.277833 -0.008022 0.073197 0.072417 -0.021306 0.320111 0.115869 -0.299272 0.284391 -0.386777 -0.035912 -0.464612 -0.203495 0.372577 -0.081763 -0.545762 -0.461966 0.018817 -0.208129 -0.216999 -0.205433 -0.169265 -0.003675 -0.130171 -0.343119 -0.331865 0.328579 -0.272462 0.204123 0.512373 -0.094803 0.124687 -0.406147 0.1589 0.121123 -0.019861 -0.007869 0.252517 0.290586 0.270471 -0.111701 0.158382 -0.117474 0.497996 0.271644 0.168001 -0.204269 0.086917 -0.176315 -0.33572 -0.118319 0.190427 -0.075459 -0.035428 -0.109045 0.470663
Hütte -0.228925 -0.117295 -0.08074 -0.270373 -0.176894 0.48195 0.083795 0.003006 0.281223 0.015294 0.180148 0.081166 0.006362 -0.100852 -0.031753 0.23273 -0.148278 0.57196 -0.007591 -0.287053 -0.006457 0.108074 -0.042395 -0.05181 0.041595 -0.26981 -0.092712 0.585257 0.111511 0.078826 0.138238 -0.093232 -0.278702 0.397212 0.265861 0.049657 -0.400838 -0.238915 0.086954 0.145526 -0.257156 -0.197651 -0.024975 -0.186287 0.373045 -0.368263 0.067434 0.058216 -0.132749 -0.224365 -0.32707 -0.17364 -0.236768 -0.258689 -0.027473 -0.133384 0.143675 0.394143 -0.549405 -0.168196 -0.082901 -0.268708 0.008794 -0.294536 -0.085759 0.094948 -0.26265 -0.090519 -0.255978 -0.39613 0.048431 0.121856 -0.318429 0.011508 -0.118941 0.321802 0.120051 0.160414 0.242706 -0.035582 -0.123043 -0.055388 0.230141 -0.233025 -0.208333 0.162295 -0.031943 0.18046 0.055657 -0.029401 -0.244984 -0.083671 0.08699 0.014928 -0.377732 0.024977 0.260217 -0.143214 -0.034505 0.123017 -0.093812 0.246151 -0.188553 0.02336 0.151353 0.227281 0.036126 -0.002576 0.171291 -0.192249 -0.03942 -0.141742 0.121317 0.185447 -0.524866 -0.027879 0.161276 0.04498 -0.356417 -0.123013 -0.128944 -0.191884 0.132443 0.133743 -0.173181 0.229063 -0.097665 0.214195 -0.334073 -0.024084 0.137691 -0.099188 -0.012488 -0.223977 0.047484 -0.126396 -0.08661 0.500805 -0.145453 -0.223852 -0.224758 0.072216 0.069186 -0.115654 -0.035886 -0.064196 0.070769 0.25765 -0.135194 0.059534 0.011868 0.039944 0.100327 -0.000942 -0.443992 -0.276502 0.038523 0.24539 0.056315 0.055741 -0.027906 0.09972 -0.057679 -0.253641 -0.211585 0.19398 -0.42372 0.256496 0.043619 0.050597 0.013993 0.049988 0.319482 0.117814 -0.491003 -0.129739 -0.042407 0.256332 0.129704 0.078214 0.30239 -0.049565 0.011808 0.052421 0.297178 0.404898 0.248166 -0.305763 -0.117492 0.01857 0.270152 0.133503 -0.187361 -0.210834 -0.11579 -0.021626 -0.039515 0.207115 -0.08957 0.142243 -0.115706 0.281466 -0.173793 -0.422803 0.340096 -0.184388 -0.009568 -0.213866 0.027055 -0.00788 0.376093 0.070646 0.010976 -0.225888 0.066744 -0.032648 0.23669 0.061124 0.487316 0.41478 0.191408 0.005754 0.415841 0.147196 0.108374 -0.17383 -0.093259 0.012962 -0.311044 0.071165 -0.088889 0.025653 -0.377746 0.087646 -0.267643 0.177096 0.2674 0.049555 -0.190983 0.291643 0.075906 -0.304681 -0.131149 -0.056821 -0.429067 -0.094755 0.202044 -0.133376 0.168333 0.120301 0.124421 -0.18648 0.309378 -0.225548 -0.107426 -0.075053 -0.04042 0.083907 0.057909 -0.132439 0.128166 -0.061295 -0.324923 -0.019627 -0.102545 -0.097542 -0.162561 -0.099446 0.069903 -0.109582 0.525511 0.110193 0.244666 0.011088 -0.120784 0.113414 -0.074038 0.276134 0.3701 0.283581 0.32905 0.00752 0.436752 0.146226 -0.26563 0.059968 -0.19447 9.7e-05 0.096064 0.072281 -0.134891 0.175531 -0.08486 0.155857 -0.112993 -0.182714 -0.26603 0.064379 -0.093182 0.54675
dauerhaft 0.101317 0.246242 0.084292 0.098593 -0.003769 -0.23465 0.02995 -0.023619 0.00587 0.102355 0.063552 0.06667 -0.03714 -0.11718 -0.027425 -0.04863 0.102179 0.104843 0.00167 -0.000384 0.141187 -0.031233 0.108299 0.033163 -0.025415 -0.051706 -0.090302 -0.023311 0.073946 -0.152396 0.087211 -0.092434 0.001708 0.038657 -0.152144 -0.018054 0.078999 -0.018291 0.003809 -0.183613 -0.101199 -0.110133 -0.059551 -0.180439 -0.006389 -0.078417 -0.089435 -0.04265 0.064863 -0.253346 -0.0546 -0.040516 -0.048984 -0.05512 -0.158849 0.207478 -0.029227 0.048755 0.10944 -0.011513 0.054133 0.02849 -0.007512 -0.09837 0.025954 0.089307 -0.108262 0.046731 -0.062009 -0.046072 -0.092036 -0.027622 0.03635 -0.142049 -0.187583 -0.034421 0.030725 -0.020122 0.120968 -0.085455 -0.020916 -0.043006 -0.070955 -0.066216 0.00565 0.121909 0.090907 -0.102204 -0.145928 -0.002011 -0.159753 0.058003 -0.047974 -0.038754 -0.117429 -0.068026 -0.006246 0.136538 0.112089 -0.041061 0.008606 0.063893 -0.027529 -0.072004 -0.015761 0.021328 0.045419 0.241712 0.110269 0.050508 0.062522 0.00747 0.07777 -0.111784 -0.130146 -0.059032 0.076415 0.0649 -0.087956 0.114581 -0.036297 -0.124003 0.220404 0.100648 0.011058 -0.123529 -0.00829 -0.075352 0.03717 -0.14199 -0.105776 -0.101974 -0.065607 -0.205756 -0.235821 -0.020835 0.069893 0.112497 0.034987 0.147247 -0.055764 -0.080965 0.016169 -0.03699 0.145091 0.039895 -0.006483 -0.256559 -0.10262 -0.07032 0.016416 -0.036415 -0.07803 0.102332 -0.034429 -0.095237 0.243739 -0.206381 0.083524 -0.062818 0.00984 0.010258 -0.051674 0.040069 0.084054 -0.094601 0.02252 -0.028046 -0.038765 -0.057914 0.001532 0.191177 0.019516 -0.104213 0.180186 -0.007259 0.027677 0.01275 0.02127 -0.023615 -0.083619 -0.226673 0.028801 -0.05171 0.027067 -0.111616 0.014043 -0.119234 0.069263 -0.011755 -0.075979 0.276596 0.069397 -0.056742 -0.189878 -0.043993 0.155475 0.061014 -0.153885 -0.050628 -0.028231 0.150515 -0.067679 -0.017236 -0.032684 -0.043601 0.133037 -0.014769 0.157519 0.1116 -0.115535 -0.038495 0.153642 0.071556 -0.104356 0.031183 -0.005482 0.128951 -0.272328 0.267215 0.01847 0.063159 0.088466 -0.05851 -0.08502 0.142698 0.04432 -0.203372 0.181936 -0.048589 0.036419 0.072932 0.004984 -0.104209 -0.141702 0.051721 0.134501 -0.158696 0.059818 -0.047743 0.073479 0.115616 0.101073 0.281151 0.017478 0.213121 0.087145 -0.010778 -0.027557 -0.078777 -0.101332 -0.02203 0.065392 -0.010694 -0.043242 0.198937 0.111142 0.043167 0.116636 0.002377 0.042812 -0.028391 -0.054607 -0.11262 -0.182015 0.021813 0.023312 0.003666 0.088079 -0.10332 0.02328 0.075179 -0.026871 -0.183077 -0.007343 -0.052861 0.034032 0.165781 0.069999 0.125429 0.088207 0.099608 0.034057 0.040205 -0.031387 -0.183384 0.036002 0.078892 -0.004853 -0.011587 0.118241 0.090643 -0.227031 0.038022 0.001746 0.136261 -0.07027 -0.168696 -0.056064 -0.114114
kalt -0.040953 -0.047815 -0.074459 0.171115 0.007689 0.398334 0.004499 -0.256029 -0.127562 0.464838 0.197942 -0.195348 -0.024246 0.258483 -0.068758 0.36004 0.223887 0.346893 0.199128 0.318752 0.500125 -0.26139 -0.041225 0.190221 -0.287722 -0.046113 0.392283 0.434332 -0.373248 -0.387513 0.410493 0.332533 0.165055 0.114893 -0.225069 0.232024 0.153105 0.28912 -0.001286 0.036643 0.156186 -0.091753 0.364768 -0.155141 0.153178 0.038848 0.604132 -0.09618 0.042241 -0.482896 -0.071799 -0.340304 -0.0589 0.196539 -0.334186 -0.078728 0.384546 0.21812 -0.366059 -0.122982 0.162011 -0.261585 -0.11353 -0.608454 0.085668 -0.537495 -0.163744 0.506101 -0.330288 -0.380187 -0.252266 -0.256264 -0.478566 0.317582 0.10773 0.125799 0.22991 0.316682 0.343774 0.263827 -0.041301 0.017005 0.426718 -0.322623 -0.284432 0.30437 0.341642 0.546291 -1.09925 -0.214346 -0.011647 -0.240311 0.171474 0.031662 0.532075 -0.565835 -0.159816 -0.131073 -0.148586 0.367554 -0.191354 0.088848 0.439147 -0.067304 -0.023058 -0.476044 -0.320446 0.260033 0.261936 0.236436 -0.100844 0.209504 0.53722 0.327139 -0.258058 -0.016704 -0.22363 0.22702 -0.54175 -0.313547 -0.057806 -0.418076 -0.390155 -0.097019 -0.742191 0.051607 -0.070696 0.415093 -0.273055 0.20907 -0.113977 -0.397524 -0.363624 0.223746 -0.190354 0.197272 0.252877 -0.05837 0.034886 -0.171442 0.310371 -0.032925 0.033817 0.108094 -0.077405 0.148599 0.055146 0.252066 0.170228 0.461259 0.239363 0.171114 -0.155647 -0.110377 -0.06516 -0.337913 0.142339 0.294121 0.097453 -0.012462 -0.014574 0.054246 -0.154374 0.373667 -0.266061 0.166251 -0.193259 -0.045432 -0.0059 0.32464 0.057075 0.113849 0.161877 -0.431443 0.012453 -0.076044 -0.270575 -0.129277 -0.193715 -0.13527 0.276579 -0.079764 0.322717 0.483266 0.433546 -0.247521 0.062511 0.284918 -0.306293 0.338996 0.342388 -0.397643 -0.022582 -0.288402 -0.306611 -0.082335 -0.138371 -0.38005 0.065786 0.246495 -0.101739 -0.253923 -0.51663 -0.101687 0.179239 0.158037 0.090814 -0.333702 -0.062219 -0.005278 -0.100196 0.507346 0.35308 -0.054359 0.382384 -0.035531 -0.101576 0.18774 0.068759 -0.134859 -0.003689 -0.268819 -0.292758 0.052551 0.306301 -0.035788 -0.179319 -0.18937 -0.190615 0.227514 -0.332491 0.292246 -0.122218 0.436885 -0.183172 0.467778 -0.842042 -0.265686 -0.082387 -0.210323 -0.266543 -0.114009 -0.003247 -0.105466 -0.324013 0.257011 -0.174339 -0.024364 0.353384 0.155039 0.091996 -0.268937 -0.343715 -0.225339 0.273258 0.061623 -0.379779 0.404383 -0.260216 -0.255408 0.178403 -0.197494 0.264921 -0.279046 -0.037823 0.14171 0.344642 -0.104104 -0.240775 0.220761 0.247511 -0.151589 0.180207 -0.054652 0.039161 -0.121011 0.022884 -0.304567 -0.34203 0.307712 0.285177 0.270362 0.050033 0.188459 -0.022675 -0.0843 -0.21502 -0.355641 0.456255 -0.250795 -0.270669 0.135088 0.122396 -0.351929 0.225815 -0.209384 0.114472 -0.234768 0.286249 0.257517
dauerhafte -0.247896 0.223012 0.065725 -0.077409 0.026853 -0.159291 0.108126 0.051614 -0.13801 0.107969 -0.038399 0.045067 0.071805 -0.110524 -0.144452 0.047438 -0.120268 -0.110289 -0.017807 -0.07131 -0.027931 -0.046351 0.06601 -0.003737 0.036845 -0.171037 0.016797 -0.057979 0.139616 -0.01272 -0.013382 -0.059925 0.121131 -0.156913 0.041269 0.021481 -0.137588 -0.004057 0.063604 0.033529 -0.033937 -0.042494 -0.12045 -0.223315 -0.167525 0.047311 -0.149926 -0.050143 -0.042432 0.009351 -0.072024 -0.083425 -0.04112 0.066889 -0.043898 0.048795 -0.05409 -0.211091 0.091263 -0.206497 -0.195786 -0.178013 0.019001 -0.051674 -0.210104 0.209168 -0.196218 -0.038834 0.006174 0.059016 0.061232 0.172875 -0.078018 -0.002374 0.03702 -0.137925 -0.087083 -0.127534 0.106003 -0.154043 -0.140773 0.139557 -0.090409 0.171952 0.145238 -0.022271 0.024132 -0.073842 0.02675 -0.048217 -0.180621 0.185073 -0.041505 -0.016302 0.008385 0.216753 -0.149744 -0.192668 -0.121235 -0.156599 -0.223018 -0.084784 -0.057205 -0.045705 -0.304162 0.150265 0.097602 -0.126539 0.159389 0.078949 -0.001504 0.198102 -0.054797 0.099196 0.023155 -0.040735 0.044921 0.07683 0.168064 -0.068648 0.106761 0.0152 0.206806 0.133835 0.143311 0.068573 -0.079438 -0.289529 0.031007 -0.051286 0.045693 0.006627 -0.09677 -0.219484 0.008715 0.168881 -0.32669 -0.096165 -0.131268 -0.022906 0.051821 -0.029773 -0.049417 -0.232885 0.046774 0.0548 -0.060122 -0.108732 -0.004337 -0.043831 -0.086726 -0.120368 -0.092811 -0.075842 -0.098771 0.239136 -0.01264 0.311102 0.093351 0.180272 0.329523 -0.066986 -0.029062 -0.052039 0.199981 -0.092589 -0.266069 -0.044394 0.251093 -0.027431 -0.157234 0.121105 0.098429 0.114725 0.185889 -0.004044 -0.131135 -0.034066 0.078452 0.169334 -0.184233 -0.185234 -0.016077 -0.07314 -0.184815 -0.04653 0.115681 -0.049265 -0.06782 -0.12494 -0.157307 0.23087 -0.094257 -0.153562 0.197307 -0.11706 -0.00272 0.205301 -0.037323 -0.124407 0.100682 -0.088037 0.089581 0.155922 0.038943 0.203413 0.172452 0.058552 -0.117761 -0.287533 0.025648 -0.130693 0.033733 0.02782 0.002492 0.113003 0.042141 -0.059806 0.026116 0.158448 0.089045 -0.180147 0.102173 0.038196 -0.13739 0.224333 0.148453 0.057515 -0.056116 -0.250675 0.1256 -0.026707 0.223937 -0.24919 -0.025564 -0.024556 0.032227 -0.197801 0.123885 0.144079 0.024662 0.065927 0.010482 0.043643 0.032523 -0.068529 0.110957 -0.006958 -0.169089 0.024915 0.04074 0.159605 -0.022103 0.105336 0.019676 -0.207762 0.221803 0.126052 0.126811 -0.037404 0.048221 -0.113195 -0.007896 0.153137 -0.020871 0.149312 0.228035 0.064802 0.096144 -0.129226 0.111278 -0.11878 -0.147837 0.012465 0.154745 -0.04097 -0.05975 -0.017219 0.043804 0.177007 -0.106711 0.22638 0.057807 0.008274 0.14524 -0.162585 -0.043709 -0.036465 0.032711 -0.080736 -0.067285 -0.097377 0.18718 0.047891 -0.139298 0.126362 -0.151798 0.079206 -0.138118 -0.178421
U-Haft 0.021707 0.048322 0.078297 -0.014301 -0.00652 -0.286613 0.131754 0.171602 0.089794 -0.062854 0.123346 -0.087346 0.088022 -0.017871 -0.205429 0.215347 0.102298 -0.110533 0.210359 0.040842 0.007397 0.012877 -0.157353 0.027091 -0.127149 0.315504 -0.103991 -0.006634 0.19069 -0.010181 -0.19982 0.048661 -0.257228 0.119705 0.003859 0.10112 -0.163173 -0.07891 0.030676 -0.128978 -0.10422 -0.095061 0.024811 0.085929 0.055151 0.133453 -0.129686 -0.284877 -0.241346 -0.010469 -0.007436 -0.111264 -0.068568 -0.278372 -0.053625 -0.092144 0.057633 -0.13423 -0.167542 -0.06956 0.104723 0.217275 0.042368 -0.021479 0.14757 0.20102 0.170029 0.191617 -0.088501 -0.05367 -0.277785 -0.11806 0.126236 0.117912 -0.144705 -0.024366 0.236008 -0.040054 0.093959 -0.203431 0.100663 -0.157444 0.050538 0.102839 0.012221 -0.169069 0.003985 0.033004 -0.006243 0.009519 0.224094 0.059033 -0.201637 0.076877 -0.160478 -0.123423 0.189531 0.268198 -0.070747 0.000185 0.14821 0.03073 -0.022193 -0.146427 0.074867 0.10833 0.100006 -0.055773 0.134604 -0.060059 0.275599 -0.236875 0.000941 -0.321818 -0.107871 -0.066658 -0.107033 0.074031 -0.136274 0.153708 -0.239095 0.061804 0.037903 0.092791 0.080515 -0.138039 0.220662 -0.084585 0.021739 -0.029787 0.03039 0.107722 0.261366 0.118237 -0.307952 -0.113215 -0.115504 0.017683 0.143779 0.032616 0.078914 -0.06731 0.088485 0.121158 0.29833 0.120359 -0.034406 0.126238 -0.029844 -0.07966 -0.078469 0.012531 -0.191894 -0.039231 -0.259168 -0.233186 0.117057 -0.133777 -0.015735 -0.042215 -0.075002 -0.081872 -0.094934 0.023558 0.058616 0.015224 -0.132891 0.010564 -0.114408 -0.012971 0.110514 0.023064 -0.089494 -0.006825 0.158252 0.085584 0.352054 -0.07108 -0.128983 -0.061854 0.26207 -0.014048 -0.05308 -0.044776 0.229282 0.042731 -0.054104 -0.097161 0.138976 -0.106135 0.020117 0.025595 -0.184756 0.09297 0.092057 0.0696 0.193366 0.037874 -0.016548 -0.041288 -0.06834 0.133103 0.198241 -0.109629 -0.148866 -0.144294 -0.160664 -0.02687 0.137377 -0.009448 0.06832 0.030029 -0.028824 -0.10045 0.052086 0.015923 -0.094276 -0.05315 -0.147083 0.133113 -0.096538 0.193742 -0.059735 -0.140691 -0.056172 -0.223752 -0.192765 -0.050069 0.285144 -0.120531 -0.189639 -0.018097 -0.032416 -0.020443 0.052047 0.0352 0.02192 -0.02771 -0.044838 -0.042655 0.113163 0.092764 0.06259 -0.067768 -0.019961 0.215361 -0.083466 0.111955 0.086414 -0.40334 -0.028531 -0.058217 0.056952 0.000498 0.09591 0.329495 0.154421 -0.112943 0.05149 0.226305 -0.2625 0.107163 -0.048367 0.11632 -0.031993 -0.013236 -0.123778 -0.083973 0.069237 -0.021318 0.004839 -0.029113 -0.011505 -0.141211 0.049613 -0.19639 -0.112131 0.119742 0.039165 0.036785 0.165283 0.021637 -0.120438 0.080054 -0.061542 0.124152 -0.099235 0.162152 -0.060856 0.123348 0.119726 0.085764 -0.17801 0.164843 -0.122447 0.154805 0.024241 -0.115458 0.118563 -0.027041
ehrenhaft 0.003178 0.044369 -0.001167 0.091053 0.031395 -0.124022 0.033314 0.076443 0.050381 0.020248 -0.018763 -0.100381 -0.148949 -0.076471 -0.052776 -0.057187 0.087357 -0.040038 0.105425 0.084718 0.091134 -0.009639 -0.073048 0.00504 -0.093663 -0.056696 -0.125226 -0.104346 0.011453 -0.011118 0.069817 -0.029078 0.079276 -0.0806 0.017806 -0.105825 0.030985 -0.051177 0.011171 -0.045743 0.151172 0.014518 0.015373 0.189713 -0.116615 0.045004 0.071802 -0.064628 0.025809 -0.100267 -0.053615 0.007014 0.019124 -0.005408 0.028591 0.088307 -0.081339 0.060045 0.15807 -0.036098 0.076544 0.108384 0.009067 -0.040984 -0.129619 0.082873 -0.044128 0.022613 0.048361 0.117518 -0.0333 0.095861 -0.027937 -0.034533 -0.026128 -0.030059 -0.057988 -0.028057 0.038754 -0.00891 -0.055822 -0.137032 -0.153379 0.077266 0.043126 -0.050092 0.015815 0.0914 -0.177024 -0.027874 -0.032891 -0.07103 -0.018609 0.016484 0.041292 0.093227 0.072939 0.069334 0.025181 -0.129941 -0.110524 -0.021692 0.012013 -0.104283 -0.066875 0.049936 -0.004749 0.023515 0.025419 -0.030965 0.007909 0.102319 -0.006114 -0.104963 -0.016608 -0.055897 -0.123393 -0.027789 0.05896 0.146158 -0.015566 -0.095329 0.005296 0.020302 0.068888 -0.034758 -0.054717 -0.062372 -0.01646 -0.044353 0.004896 0.001772 -0.001104 -0.052938 0.078084 -0.012755 -0.036525 -0.153708 -0.060397 0.158085 -0.023763 -0.069982 0.046916 -0.060606 -0.023249 -0.093448 -0.163562 -0.100556 0.051427 -0.103686 -0.045691 -0.021439 -0.055933 -0.032694 -0.02546 0.075833 -0.038675 -0.006339 0.012323 0.02305 0.035042 0.072284 0.006365 -0.115812 0.143934 -0.09283 0.114882 -0.150167 0.096555 -0.097077 0.059949 0.1785 -0.021921 -0.006383 0.008425 -0.014671 0.14906 -0.051275 0.258076 -0.048127 -0.0222 -0.143844 0.03063 -0.071414 -0.058857 -0.031058 0.039229 -0.045442 -0.004554 -0.055471 0.106394 -0.057348 -0.105753 -0.03755 0.06659 0.038549 0.05544 -0.068137 -0.020593 -0.007891 0.023569 0.020824 -0.123425 0.076522 0.043502 0.059476 -0.03446 0.091623 0.021031 0.080984 -0.026078 -0.06529 -0.00916 0.040895 -0.082894 0.019718 -0.039529 0.029211 -0.136411 -0.084294 -0.038427 0.051069 0.050829 -0.026479 0.009417 -0.009885 0.01109 -0.03634 0.169241 -0.001102 0.062218 -0.132488 0.080133 -0.146629 -0.018435 -0.110835 -0.151169 -0.127831 0.007751 0.078023 0.075641 0.004905 0.088717 0.032877 0.033662 0.069298 -0.060327 0.002181 0.021265 0.038624 0.107922 0.156766 -0.062811 0.062637 0.270605 -0.082909 0.069002 -0.001099 0.235214 -0.042914 0.07458 -0.007702 0.062673 -0.06709 -0.034885 0.0282 0.061083 0.078937 0.096226 0.078275 -0.047067 -0.056999 -0.041505 -0.144649 0.030378 -0.019237 -0.016395 0.064744 -0.065017 0.095679 -0.052569 0.098413 -0.189425 0.031948 -0.017954 -0.043262 0.051226 0.038409 0.045107 -0.002188 0.092757 0.046771 -0.002535 -0.011134 -0.022267 -0.020401 0.087827 0.111598 0.049472 -0.033815
ekelhaft -0.050857 -0.077288 0.026107 -0.003875 0.009348 0.065857 -0.001349 -0.061142 -0.135741 0.089358 -0.120085 -0.074406 -0.099555 0.067772 0.057009 -0.021334 -0.10367 -0.039595 0.190545 0.075267 -0.049289 -0.109081 0.096868 0.113701 -0.023216 0.082129 0.012843 -0.188825 -0.10727 -0.168542 0.211655 0.010442 0.089165 0.032553 0.006528 0.034295 -0.040853 0.137436 0.114307 0.108731 0.066618 -0.080918 0.039623 0.089861 -0.004955 0.036293 0.22788 0.022617 -0.053881 -0.141475 -0.118077 -0.054888 0.138837 -0.061369 -0.105799 -0.110085 0.045871 0.15409 -0.032482 -0.059612 0.06572 -0.097543 -0.001772 -0.103398 0.052233 -0.032881 -0.240733 0.003818 0.033164 0.040128 0.013511 -0.035926 -0.064634 0.170763 -0.001617 0.040145 0.240127 0.010861 0.099126 -0.011594 -0.021242 0.060782 0.085687 -0.084819 0.065405 0.116866 0.015557 0.047877 -0.200748 -0.148255 -0.034698 -0.028708 0.057687 -0.067746 0.050482 0.023355 -0.043323 0.175084 -0.020554 0.032162 0.033574 0.064355 -0.104799 -0.053634 0.097934 0.05014 -0.007092 0.17036 0.214731 -0.102767 0.100675 0.065189 0.128149 0.089542 -0.124242 -0.120229 -0.092463 0.127943 -0.033766 0.064815 -0.009768 0.013293 -0.155757 -0.093489 0.020989 0.075588 -0.022061 0.045122 -0.073416 -0.032051 -0.135293 0.045512 -0.018814 -0.081704 0.087454 -0.016127 0.129777 -0.147923 0.049087 -0.047234 0.162973 0.118826 -0.051414 0.124125 0.028662 0.059011 0.053063 -0.051974 -0.068871 0.144415 -0.025873 -0.176791 0.157542 -0.042896 0.001256 -0.009063 -0.098172 -0.036873 -0.053316 0.042603 0.036492 0.002615 -0.055812 0.034869 -0.066065 0.074389 0.05335 -0.061829 0.093712 0.022835 0.054489 0.123984 0.107188 0.102278 0.056197 0.082544 0.043466 0.039223 0.057428 -0.061398 0.016767 -0.188108 0.023219 0.113888 -0.062262 -0.040721 0.112013 -0.023224 0.13197 -0.037851 0.087 -0.086117 -0.16332 -0.004447 0.139681 -0.12636 0.084397 -0.127908 0.074917 -0.070428 -0.016767 0.025202 -0.178234 0.137501 -0.050767 -0.015833 -0.071148 -0.020959 -0.117009 0.043718 0.059309 0.003346 0.140993 0.239786 0.080647 0.000253 -0.042755 0.031149 -0.094791 -0.148543 -0.028418 0.042507 -0.087457 -0.051564 0.096666 0.046098 0.036947 -0.054584 0.079556 0.136432 0.001003 0.110565 -0.018312 -0.053489 -0.060183 -0.058421 -0.251866 -0.061204 0.042217 0.009902 0.01532 0.005545 0.071611 -0.020137 -0.019532 0.011028 -0.042018 -0.253405 -0.054272 0.077026 0.106081 -0.035029 -0.03299 0.115784 0.253692 -0.081949 0.010265 0.112896 -0.038148 0.012848 0.074039 0.135745 0.039613 -0.097813 -0.106649 0.252131 0.022828 -0.073628 0.071762 0.097662 -0.064 0.037377 -0.047936 0.074442 -0.127733 0.073496 0.144774 -0.014396 -0.113041 0.107104 0.062788 0.029505 -0.088441 -0.035825 0.104046 -0.013852 0.158824 -0.048377 0.019608 -0.015363 0.166013 -0.04713 -0.011389 0.034653 0.073257 -0.071835 0.191802 -0.16331 0.047853 -0.045385
mild -0.180543 -0.027256 0.073116 0.112667 -0.125903 0.246671 -0.017001 -0.15321 -0.004691 -0.003451 -0.141186 -0.121162 0.034255 0.132927 0.097792 -0.05268 0.09846 0.078522 -0.00528 -0.176883 0.149954 -0.282966 0.146396 -0.0254 -0.281942 0.383201 0.203478 -0.059813 -0.250858 -0.278509 0.19409 0.157279 0.165909 -0.160094 -0.171331 0.095901 0.10487 0.144911 -0.052113 -0.000725 0.082065 -0.0799 0.021863 0.013717 -0.163213 0.096045 0.365477 0.202567 -0.107764 -0.121688 0.038829 -0.035437 0.192195 -0.005589 -0.034069 0.004516 0.283458 0.021151 0.003106 -0.24331 0.096046 0.105114 -0.055778 -0.141883 -0.018328 -0.240163 -0.353954 -0.062906 0.313646 0.022769 -0.03913 -0.028599 -0.285029 -0.04808 0.137443 0.005554 0.138902 0.163076 0.051034 0.196913 -0.074284 -0.136073 -0.089075 0.051557 -0.260121 0.200985 0.031495 0.189698 -0.263341 -0.334051 -0.002563 0.002418 -0.005352 -0.179873 0.250274 -0.281864 -0.16627 -0.218835 0.064673 -0.046929 -0.086313 0.087935 0.150529 0.14516 -0.139268 -0.202461 -0.079379 0.18694 0.005416 0.238232 0.129789 0.296452 0.163772 0.353628 -0.108154 -0.170366 -0.356737 0.047411 -0.22151 -0.032273 -0.036843 -0.206002 -0.236169 -0.158244 -0.227965 -0.011312 -0.116472 0.023331 -0.392681 0.105041 -0.171532 -0.158617 -0.139067 0.218772 0.027182 0.083672 0.058099 -0.209346 0.02692 -0.195272 -0.005775 -0.154016 -0.085423 0.038971 -0.027791 0.068246 0.102179 0.039206 -0.115637 0.336159 -0.001361 -0.101562 0.094037 -0.017786 0.205397 -0.176952 -0.005022 0.062251 -0.149397 -0.073011 0.251688 0.092115 -0.025477 -0.008567 -0.143912 -0.028964 -0.306959 -0.174853 0.206784 0.150679 -0.043835 0.0608 0.138444 0.054622 -0.057157 0.000696 0.14182 0.061096 0.101262 -0.170051 0.056931 -0.118194 0.175563 0.080172 0.201908 -0.027288 0.13843 0.089734 -0.028921 0.150424 0.233866 -0.23852 -0.097413 -0.076731 -0.125245 0.074101 -0.109238 -0.357642 -0.091244 -0.078503 -0.103321 -0.032672 -0.106961 0.215183 -0.042763 -0.054176 0.190703 0.010959 -0.124278 0.130234 -0.272867 -0.00308 0.08681 0.146051 0.125898 0.037932 -0.107798 -0.011199 -0.084787 -0.205201 -0.048245 0.019328 -0.260358 -0.313295 0.075621 0.036038 -0.098726 -0.034903 -0.03474 0.152561 -0.230766 -0.029208 -0.053897 0.032446 -0.2361 0.093726 -0.207382 -0.200011 -0.202461 0.108638 -0.106261 -0.114757 0.062541 0.081324 0.070549 -0.029466 -0.242293 -0.155055 -0.048356 0.018695 0.151709 -0.105735 0.095552 -0.045484 0.164789 -0.079703 -0.00273 0.099181 0.07977 -0.045179 0.121175 0.115865 -0.062018 0.002419 0.053847 0.268285 0.233329 -0.012395 -0.058806 0.091101 0.00693 0.205235 0.098663 -0.034222 0.135375 -0.014715 0.185144 -0.018772 0.021952 0.112148 0.273593 0.083566 -0.038148 -0.054329 -0.157711 0.144497 -0.039309 -0.280575 0.220939 -0.138016 0.03331 -0.010011 -0.026138 -0.178992 0.231077 -0.074367 0.078417 -0.063798 0.115124 -0.032261
Bruderschaft 0.048063 -0.014889 -0.026866 -0.30355 0.141894 0.163537 0.072642 0.150113 0.145432 -0.049856 0.138987 0.051232 -0.024099 0.028087 0.143454 0.22215 0.1431 0.034066 0.004686 -0.027286 0.362501 0.281796 -0.048632 0.150753 -0.257354 0.190493 0.094474 0.175125 0.233471 0.201854 -0.031583 0.039828 -0.067782 0.07305 0.298977 -0.003492 -0.170633 0.129666 -0.142721 0.057605 -0.298755 -0.296505 -0.149534 -0.028653 -0.146976 -0.168441 -0.042603 0.010954 -0.01458 0.097411 -0.076969 0.103252 0.299333 -0.259119 0.082726 0.044823 -0.119803 -0.130217 -0.28003 -0.017865 -0.058675 0.169404 0.047633 0.00998 -0.079021 0.063903 -0.015924 -0.244348 0.153684 -0.090641 -0.309438 -0.019841 -0.040087 0.094813 -0.108012 -0.118646 0.080111 -0.188415 0.295682 -0.271936 -0.06553 -0.020889 -0.143638 -0.051601 0.051879 0.21734 -0.034226 -0.071116 0.18626 0.046571 -0.101334 0.136546 -0.038735 0.069008 -0.27147 0.018433 0.193658 0.045864 0.017564 -0.037358 0.15723 0.00803 0.035222 0.123792 -0.131788 -0.0322 0.170937 -0.030271 0.032869 0.129212 0.044117 -0.01082 -0.001324 -0.115327 0.106693 0.040006 -0.057671 0.223816 -0.301568 -0.10056 0.004908 -0.264091 0.181727 0.246115 0.122445 0.382603 -0.118756 -0.090742 -0.079531 -0.087248 -0.00713 -0.026129 0.23309 -0.367115 -0.053082 -0.084069 -0.079807 0.25833 -0.170695 -0.001244 -0.043147 -0.109303 0.098365 -0.146837 -0.004787 -0.038985 -0.072122 -0.102851 -0.208104 -0.24444 -0.333826 -0.041984 -0.177238 0.02648 -0.124575 -0.010504 0.052366 0.127562 -0.067679 0.055575 0.150039 -0.112805 -0.062593 -0.02985 -0.051806 -0.253196 -0.220086 0.044796 -0.007793 0.205234 -0.075332 0.108737 0.04486 0.256787 -0.083445 0.017012 0.09744 -0.079936 0.224531 0.093457 -0.132424 -0.076787 -0.255728 0.054359 0.225254 0.013849 0.177946 0.011547 -0.210054 -0.116779 -0.150723 0.030871 -0.210396 0.205851 -0.090543 0.239561 -0.071781 0.127744 -0.098415 0.048734 -0.176887 0.161484 0.068782 0.025684 0.116097 -0.23517 0.209031 0.104124 0.038062 -0.04543 0.152521 0.129882 -0.214705 -0.191216 0.124455 -0.108759 0.232367 0.021814 0.105169 -0.083726 0.095694 0.1723 0.25631 0.243872 -0.101013 0.136905 -0.010562 -0.003479 -0.151275 -0.118903 -0.006378 -0.041819 -0.177337 -0.195753 -0.099439 0.018583 0.301355 -0.255047 -0.111917 0.129965 0.161452 -0.28873 0.003494 -0.030871 -0.060922 -0.052984 -0.201822 -0.000695 0.103096 0.195075 0.272811 0.27496 0.075137 -0.07951 0.066311 -0.027013 -0.063496 -0.142604 0.018195 -0.056175 0.136503 0.042781 -0.050788 0.193604 -0.020911 0.075299 -0.018305 0.084287 -0.070124 0.032477 0.3579 0.096538 -0.019651 -0.193033 0.128257 -0.201039 -0.044966 0.069818 0.122271 0.001417 -0.228638 -0.087494 0.252555 -0.218019 0.121725 -0.273833 0.161416 -0.103685 -0.081614 0.143661 0.114352 0.11457 -0.077772 0.138438 -0.056944 -0.231873 -0.111252 0.124864 -0.053787 0.208716
Zimmer -0.471788 -0.261482 0.120109 0.502193 -0.217326 0.17825 0.228999 0.220179 0.101 0.246931 0.233954 0.189664 0.1576 0.214962 -0.274286 0.130417 0.042714 0.780343 0.642363 -0.110903 -0.060047 -0.564165 -0.228903 0.07061 0.2077 -0.264475 0.005944 0.462889 -0.144188 0.08422 -0.141053 0.068798 -0.031879 0.402725 0.27928 0.066507 0.199182 -0.564056 -0.042572 0.305904 -0.247889 0.008533 0.203294 -0.409021 0.278203 -0.047607 0.340896 0.309919 0.070522 0.14771 -0.217509 -0.481122 -0.167537 0.728783 -0.014093 -0.129944 0.184983 1.06205 -0.558348 -0.232238 -0.06372 -0.635516 -0.218608 0.178313 -0.387738 -0.138202 -0.10776 0.068484 -0.749342 -0.504685 -0.060975 0.229334 -0.303601 -0.112157 -0.147874 0.429409 -0.026094 0.243691 0.153462 0.288187 -0.062061 -0.104961 0.515023 -0.293949 -0.483636 0.40432 0.216537 0.50676 -0.227768 0.19028 0.004055 -0.289278 0.396096 0.148098 -0.032786 -0.081951 0.07125 0.004643 0.141821 0.102169 -0.270828 -0.02116 -0.226354 -0.187227 -0.003495 0.160694 -0.09372 -0.112322 -0.015272 -0.400254 0.093451 0.010969 0.267378 0.373726 -0.415851 -0.201201 0.168261 -0.370226 -0.449533 -0.206185 -0.102052 0.637703 -0.089998 0.000426 -0.163089 0.154886 0.097905 0.177884 -0.420031 0.476313 0.358365 -0.006287 -0.329216 -0.165854 0.369406 0.329961 0.315699 0.73792 0.005475 0.021618 -0.100135 0.049894 -0.09143 0.054118 0.095081 -0.032727 0.297329 0.729914 -0.465959 -0.076479 0.121708 -0.098119 -0.206946 0.012806 -0.03821 -0.198266 -0.026287 0.303637 0.066266 0.116759 -0.404116 -0.079666 0.46076 -0.50374 -0.294174 0.228943 -0.163989 0.181674 -0.314949 0.233071 0.103682 0.378661 0.428352 -0.315454 -0.436047 0.105667 -0.097053 0.107203 -0.062044 0.308245 0.175203 -0.323662 0.236244 0.568548 0.304326 0.654672 0.300035 -0.507831 -0.37153 0.11454 0.197297 0.196474 -0.059399 -0.389894 0.112188 -0.277771 -0.111871 0.074643 0.208691 -0.048678 0.213772 -0.049367 0.02135 0.038392 0.027751 0.49956 0.182235 -0.346496 -0.185743 0.317463 0.120088 -0.045854 -0.035444 -0.001082 0.105108 -0.392418 0.585318 0.54725 0.503544 0.554436 0.232638 -0.604803 0.078209 0.228156 0.486602 -0.509022 0.06257 -0.091274 -0.386024 -0.057609 -0.418462 -0.202327 -0.40802 0.31747 -0.057161 0.119478 -0.252354 0.136493 -0.084868 0.346561 -0.14946 -0.161534 -0.262901 -0.103962 -0.187447 0.143546 -0.385656 0.151117 -0.160257 0.184693 -0.088731 -0.398434 0.367545 -0.155013 -0.396907 -0.247029 -0.174203 0.211986 -0.163847 -0.568152 -0.173808 0.20579 0.042964 -0.201045 -0.01688 0.038025 0.169866 0.134233 -0.488377 -0.372674 0.065229 -0.120306 0.57472 0.509023 -0.369869 0.189933 0.203682 0.054781 0.470201 0.085744 0.248801 0.386855 0.375091 0.277032 -0.685865 0.299205 -0.215689 -0.001702 0.263344 0.095988 -0.370486 0.510669 -0.234855 -0.400325 0.091007 -0.111533 0.431246 -0.244042 -0.399989 0.296626
grauenhaft -0.047485 -0.151419 -0.094419 0.124463 -0.03569 0.000581 0.035885 -0.15647 -0.012883 -0.034841 -0.061731 -0.074903 -0.090037 0.104249 0.016964 -0.026415 -0.004065 -0.027794 0.04268 0.069193 -0.079502 0.013233 0.122362 0.063556 -0.058203 0.072072 -0.089264 -0.226946 -0.04458 -0.100691 0.079242 -0.009192 0.24371 -0.017989 -0.030667 -0.042349 0.055056 0.065285 -0.006795 0.031929 0.054062 -0.049905 0.071411 0.125142 -0.024388 0.050431 0.241125 -0.13648 0.077257 -0.110501 -0.073838 0.075688 0.087984 -0.003518 -0.046523 -0.018595 0.085804 0.099994 0.026354 0.140132 -0.003365 0.021285 0.025431 -0.038172 -0.027669 -0.020456 -0.093468 0.118258 0.065582 -0.035598 0.031936 -0.001026 -0.07443 0.063118 0.040889 -0.013307 0.017209 0.052524 -0.033274 0.018554 -0.013088 0.017332 -0.003814 0.081555 0.017438 -0.046971 -0.060496 0.118301 -0.225799 -0.089551 -0.039935 -0.063951 0.013763 0.010302 0.136065 -0.011135 -0.011024 -0.078988 0.07102 0.045233 -0.023797 0.110315 -0.03327 -0.068945 -0.068125 0.033553 0.028157 0.167784 -0.013795 0.040209 -0.001507 0.039437 0.078176 0.053055 -0.071735 -0.016304 -0.093264 0.107597 -0.09626 0.013956 0.030123 0.033737 -0.189127 -0.10229 -0.006462 -0.028869 -0.146037 0.049723 -0.101732 -0.13402 -0.146207 -0.10651 -0.008211 0.038759 0.129372 -0.131883 -0.063804 -0.212332 -0.022094 -0.180904 0.179063 -0.033008 -0.076198 0.057721 -0.073246 -0.017429 0.059626 -0.075798 0.001445 0.127587 -0.015639 -0.118089 0.136078 -0.000348 0.144689 -0.112484 -0.033997 0.01738 -0.057075 0.032304 0.046526 0.043621 -0.169334 0.008433 0.056046 -0.074066 0.068556 -0.08866 0.102778 -0.105727 0.032815 0.143765 0.050754 0.127646 0.177647 -0.041834 0.069959 -0.044118 0.050669 -0.086107 0.077743 -0.160254 -0.013941 0.040632 -0.053626 -0.024715 0.065266 0.082017 0.027403 -0.006745 0.058676 -0.121275 -0.058398 0.046043 0.151014 -0.058753 0.020424 -0.137912 0.059314 -0.034311 0.014534 -0.052115 -0.175753 0.10023 -0.085948 0.100698 -0.093081 0.064744 -0.031764 -0.021514 -0.005143 0.070493 0.094666 0.063483 -0.011007 0.050384 0.020668 0.029775 -0.100836 -0.089597 -0.013317 -0.00125 -0.026964 -0.05834 0.087571 0.110854 0.10014 -0.020231 0.058032 0.192447 -0.019945 0.004972 -0.080079 0.005164 0.021969 -0.006486 -0.246646 -0.049863 0.079082 -0.136595 -0.029746 -0.082307 0.112805 0.007636 0.094383 0.016965 -0.112329 -0.05721 0.049724 -0.002497 0.022666 0.090299 -0.041387 0.026308 0.280194 -0.053351 0.010235 0.191034 0.154187 -0.017296 -0.042125 0.14344 -0.052935 -0.098843 -0.029734 0.171932 -0.047403 -0.029847 0.048084 0.099233 -0.00109 0.079084 -0.077095 -0.095263 0.11063 -0.001917 0.028957 -0.007545 -0.083436 0.06689 0.018127 -0.073335 -0.22256 -0.096395 0.048378 -0.102093 0.110295 -0.020011 0.045963 0.002375 0.095468 0.015133 0.05419 -0.073002 0.118537 -0.105911 0.137559 0.129243 -0.013071 0.000521
grauenhafte 0.016463 0.210427 -0.042635 -0.007042 0.216687 0.019664 0.190363 0.032308 -0.062792 -0.019374 -0.035932 -0.028877 -0.135621 -0.219411 0.089713 -0.043189 -0.052979 -0.036456 -0.059885 0.020142 -0.096526 -0.015411 0.073585 -0.13335 -0.120565 0.025377 0.040461 0.009495 -0.020896 0.048073 0.049293 -0.031779 0.056859 -0.234063 0.091029 0.018638 0.061546 0.048835 0.005849 -0.11161 -0.02398 -0.077682 -0.044226 -0.000228 -0.121464 0.071207 -0.019714 0.006228 -0.021814 -0.144702 -0.100767 0.050575 0.171539 0.021813 -0.038629 0.091455 0.010978 -0.106281 -0.024107 -0.0626 -0.131018 0.090434 -0.027604 -0.07093 -0.21222 0.135759 0.064624 -0.085345 0.058783 0.107424 0.091486 0.211422 -0.045675 0.040164 0.230979 -0.044641 0.078152 0.133894 -0.052524 -0.131125 -0.036581 -0.053594 -0.055918 -0.002318 0.098885 -0.096851 -0.108767 -0.148634 0.007046 -0.07328 -0.021649 0.109453 0.026524 0.102248 0.019678 0.186097 0.014699 0.066672 -0.108365 -0.097616 -0.064446 0.081226 -0.13532 0.027537 -0.079905 0.118097 0.007471 0.039059 -0.055172 0.152425 0.062784 0.180113 -0.032589 -0.128328 -0.052433 0.065484 0.032401 0.004317 0.05916 0.004174 -0.02891 -0.095352 -0.087706 0.003046 0.049524 0.056896 -0.026173 -0.076929 0.018915 -0.134717 0.157105 -0.019456 0.029146 -0.033066 -0.063701 0.061658 -0.110562 -0.102525 0.013528 -0.03348 0.109158 0.029764 -0.078483 -0.059129 0.140724 0.033121 0.052211 0.044022 0.010423 -0.07416 -0.035792 -0.057407 0.133683 -0.113127 0.138414 0.09173 -0.051755 -0.163352 -0.064131 0.193129 0.193639 0.05278 -0.094465 -0.082037 -0.001199 -0.077596 0.087173 0.005236 0.03264 -0.049361 -0.08503 -0.051355 0.151987 0.104055 -0.111917 -0.108449 -0.012679 0.025238 0.050906 0.009258 -0.070078 -0.010831 -0.011273 0.006365 -0.113004 -0.009997 0.080016 0.149094 0.097448 -0.189412 -0.008261 0.060145 -0.265101 -0.017184 0.169622 -0.15642 0.070714 0.005879 -0.03197 -0.139604 0.057413 -0.075388 -0.024799 0.118057 -0.019939 0.065074 8.1e-05 0.005695 -0.155686 0.031758 -0.072716 -0.228618 -0.01941 0.041375 -0.033377 0.042398 -0.117416 -0.020116 -0.13569 -0.108959 -0.064688 -0.069435 0.045916 0.015414 0.046215 0.154997 0.051364 0.032531 0.025531 -0.033301 -0.075581 0.009031 0.003487 -0.10455 -0.083474 -0.104345 0.060064 -0.109974 -0.018361 0.073136 0.068371 -0.03749 0.275251 0.016858 0.084401 -0.137951 0.091061 0.014527 -0.086356 0.03553 -0.106468 -0.027862 -0.089586 0.095505 0.133644 -0.08469 0.106596 0.012701 -0.005001 0.031624 -0.062087 -0.036023 0.015885 0.037383 -0.075279 0.003395 0.093188 0.164083 0.08194 0.116657 -0.097591 0.116449 -0.130931 0.009558 0.031802 0.17621 0.084187 -0.012835 0.008242 -0.037397 -0.081786 0.00878 0.066807 -0.212914 0.015982 -0.069642 0.133925 0.059555 0.030137 0.016656 0.100358 -0.126958 -0.017603 0.032416 -0.076259 0.008703 -0.023969 -0.058979 -0.00276 -0.225467
grauenhaften 0.181952 -0.082556 0.025756 -0.078222 0.019867 -0.078839 -0.007361 0.032088 0.141455 -0.096153 -0.098888 -0.006705 -0.182186 -0.01537 0.052085 -0.147219 -0.005754 0.017819 -0.165027 0.056575 -0.108474 0.017079 0.159288 0.037211 -0.120347 -0.119768 -0.287073 -0.25665 0.089559 0.038126 0.136048 -0.016033 -0.028527 -0.092834 -0.222375 0.112549 0.031413 -0.04395 0.024983 -0.235107 -0.049551 -0.009839 -0.123063 0.115374 -0.082878 -0.184583 -0.008257 0.00516 -0.007818 -0.032442 0.274607 -0.031518 0.083535 -0.102644 0.063929 0.013905 -0.055382 -0.143779 0.242303 0.069193 0.049353 0.094568 -0.057599 0.174985 0.06335 0.042768 -0.083086 -0.192089 0.124405 0.20086 0.007331 -0.048138 0.04592 -0.15382 0.072726 -0.092229 -0.017364 -0.069397 -0.008851 0.114943 -0.118075 0.02243 -0.129391 0.190159 0.011913 -0.081832 0.034302 0.001445 0.047961 -0.045565 0.1404 0.02249 0.046348 -0.092009 -0.054345 -0.000424 -0.055137 0.188815 0.019592 0.070651 -0.047941 -0.036364 -0.001137 -0.189739 -0.098584 0.070479 -0.144496 0.095351 -0.061156 -0.049387 0.174145 -0.023052 -0.162149 0.049877 -0.026376 0.078236 0.045228 -0.041337 0.097991 0.218273 0.02927 0.056776 -0.0027 0.06811 0.064098 -0.081561 -0.079799 0.041194 0.053693 0.053924 -0.038336 -0.017202 -0.136776 -0.017351 0.058722 -0.038773 0.275684 -0.023288 -0.032279 -0.133905 -0.069329 0.093403 -0.042988 0.020596 -0.046563 -0.008767 0.039251 -0.091895 -0.085228 0.040126 -0.165707 -0.029389 0.080187 -0.198714 0.037466 0.004105 0.00823 -0.001445 -0.084834 -0.029616 0.056431 0.119977 -0.087251 -0.064342 -0.00579 0.034159 0.070712 -0.170257 0.094072 -0.226864 0.086067 -0.037878 -0.114891 0.114949 0.133547 0.070439 -0.017574 0.021421 0.050385 -0.030506 0.11445 -0.292321 0.037636 -0.211142 -0.223514 0.093343 0.053349 -0.067735 0.020235 -0.097633 0.134901 -0.037954 -0.048591 -0.060609 -0.001162 2.2e-05 0.112243 -0.034297 -0.144743 -0.129267 -0.018391 0.004706 0.074832 -0.066856 -0.041338 -0.040251 -0.079926 0.112933 0.014379 -0.268013 -0.173395 -0.219631 -0.124101 0.243611 0.022818 0.150403 -0.164865 -0.087947 -0.078216 -0.014081 -0.035389 -0.037351 -0.121271 -0.066517 0.155358 -0.091362 0.227694 -0.119562 -0.005146 -0.019412 0.037131 -0.11296 -0.039926 -0.141084 -0.044565 -0.066771 0.030256 0.028547 0.05459 -0.011661 -0.020819 0.009082 0.041772 -0.01407 0.024377 -0.008526 -0.024428 -0.032436 -0.200951 -0.192028 0.029418 0.09216 0.007823 0.033489 0.275471 0.032005 -0.04501 -0.076 0.086238 -0.088051 0.059727 -0.049684 -0.069764 0.022 0.027939 0.055507 -0.027652 -0.065402 0.041354 0.188477 -0.084726 0.072373 -0.037578 -0.079412 0.146416 -0.088233 0.085809 0.008229 0.029232 -0.1 0.133509 -0.089313 -0.209307 0.013416 0.103887 -0.094904 -0.051868 0.025473 -0.000265 -0.022109 0.048347 -0.111247 0.018566 0.061992 -0.143645 0.039056 -0.037866 -0.041645 0.006766 -0.111937
und -0.395045 -0.523482 0.113859 -0.25448 -0.026697 0.812272 -0.91253 -0.445979 -0.958132 0.49954 0.131662 0.050623 0.502252 0.298648 0.250881 -0.398697 -0.45123 0.110897 -0.207008 -0.32952 0.815643 0.022293 -0.767502 0.2454 1.09339 0.314136 0.993338 0.591091 0.080074 0.216968 -0.236217 0.306514 -0.803096 0.698993 0.0637 -0.0558 -0.26531 0.66296 -1.01929 0.60789 0.789401 -0.217653 0.038514 -0.192854 0.001264 0.138548 -0.023456 0.182814 0.481699 -0.168534 0.039511 0.283429 -0.248361 -0.245252 -0.125708 0.209883 0.703645 1.0818 -0.753099 -0.446133 -0.221686 -0.003728 -0.664494 0.176905 0.579521 -0.649938 -0.720305 -0.648686 0.290362 -0.359827 -0.35491 -1.08851 0.279447 0.656928 -0.369894 0.473278 -0.176331 -0.384955 0.283451 0.430887 0.52856 0.329183 1.40294 -0.580352 -0.515888 0.89817 0.234363 0.390053 0.070047 0.284191 -0.618376 -0.244283 -0.103914 -0.188042 0.753665 -0.458484 -0.183711 -0.173491 -0.493835 0.006692 -0.51146 -0.035772 0.456844 1.09403 0.2156 -0.89312 -0.153491 0.520847 -0.392228 -0.26285 -0.168892 -0.123415 0.198935 0.6735 0.02531 -0.543663 0.353208 0.422723 -0.136997 0.311871 0.207292 0.013503 0.98104 -0.409325 -0.236601 0.319174 0.555144 0.150148 -1.09176 0.339582 -0.445414 -0.456904 0.604445 -0.246723 0.140943 -0.008177 0.08878 1.00679 0.571398 0.326227 0.281982 -0.195866 0.712468 0.345676 0.25065 0.007365 0.452058 0.634887 -0.157071 0.054398 0.079128 0.455684 0.445866 0.20959 -0.188817 -0.213161 -0.831992 0.393996 0.700032 -0.047758 -0.638918 -0.006258 0.703429 0.465512 -0.173083 -0.087601 -0.479591 -0.392711 -0.541651 0.554725 -0.09109 0.095059 -0.014945 -0.669026 -0.099133 -0.39653 -0.191036 0.77403 -0.351791 -0.315217 -0.241095 0.693191 0.084612 0.465827 0.555311 0.102575 -0.025386 -0.17114 -0.198824 0.617934 -0.266073 0.066493 0.808172 -0.535707 -0.44768 -0.354559 -0.069494 0.03494 0.784459 0.591265 0.259753 0.10646 -0.356805 0.008649 -0.082054 -1.11329 0.764632 -0.417387 0.758778 0.791761 -0.253304 -0.665785 0.162079 -0.520809 0.117932 -1.20178 1.11805 0.467146 0.965021 -0.137621 0.122389 -0.154929 0.183434 0.07254 0.219651 0.206754 -0.508705 -0.259936 -0.358843 -0.252 0.054712 0.429358 0.124686 -0.052086 -0.096221 0.120335 0.076674 0.726778 0.300567 -0.024743 -0.221687 -0.569907 -0.521585 0.523959 -0.227509 -0.097919 -0.198387 -0.467773 0.306576 0.217627 -0.117907 -0.642615 -0.051299 -0.503743 -0.775502 0.289619 -0.798301 0.061925 0.046157 0.592884 -0.266583 -0.528012 0.242589 0.382479 0.104368 -0.090474 0.203338 0.351689 -0.374914 -0.832691 0.699587 -0.329487 -0.380588 0.811958 -0.44753 -0.766023 -0.17014 -0.753387 0.23384 0.353695 -0.293498 0.076006 -0.141107 0.330572 -0.656799 0.214118 0.231081 -0.720679 0.483507 -1.12841 -0.078693 0.026658 -0.072058 -0.658285 0.82165 -0.058914 0.636502 -0.842677 0.335919 0.570327
